<?xml version="1.0" encoding="UTF-8" standalone="yes"?>
<PMML xmlns="http://www.dmg.org/PMML-4_2" version="4.2">
    <Header copyright="www.dmg.org" description="Weka RandomForest as PMML.">
        <Application name="Feedzai FOS-Weka" version="1.0.4"/>
    </Header>
    <DataDictionary>
        <DataField name="sepallength" optype="continuous" dataType="double"/>
        <DataField name="sepalwidth" optype="continuous" dataType="double"/>
        <DataField name="petallength" optype="continuous" dataType="double"/>
        <DataField name="petalwidth" optype="continuous" dataType="double"/>
        <DataField name="class" optype="categorical" dataType="string">
            <Value value="0"/>
            <Value value="1"/>
        </DataField>
    </DataDictionary>
    <MiningModel modelName="weka:weka.classifiers.trees.RandomForest_Model" functionName="classification">
        <MiningSchema>
            <MiningField name="sepallength" usageType="active"/>
            <MiningField name="sepalwidth" usageType="active"/>
            <MiningField name="petallength" usageType="active"/>
            <MiningField name="petalwidth" usageType="active"/>
            <MiningField name="class" usageType="predicted"/>
        </MiningSchema>
        <Segmentation multipleModelMethod="majorityVote">
            <Segment id="1">
                <TreeModel modelName="weka:weka.classifiers.trees.RandomForest_Model" functionName="classification" algorithmName="weka:weka.classifiers.trees.RandomForest" splitCharacteristic="multiSplit">
                    <MiningSchema>
                        <MiningField name="sepallength" usageType="active"/>
                        <MiningField name="sepalwidth" usageType="active"/>
                        <MiningField name="petallength" usageType="active"/>
                        <MiningField name="petalwidth" usageType="active"/>
                        <MiningField name="class" usageType="predicted"/>
                    </MiningSchema>
                    <Node id="1">
                        <True/>
                        <Node id="2">
                            <Extension name="trainingProportion" value="0.5933333333333334"/>
                            <SimplePredicate field="petalwidth" operator="lessThan" value="1.75"/>
                            <ScoreDistribution value="0" recordCount="0.0" confidence="85.0" probability="0.9550561797752809"/>
                            <ScoreDistribution value="1" recordCount="0.0" confidence="4.0" probability="0.0449438202247191"/>
                            <Node id="3">
<Extension name="trainingProportion" value="0.9550561797752809"/>
<SimplePredicate field="petallength" operator="lessThan" value="5.05"/>
<ScoreDistribution value="0" recordCount="0.0" confidence="84.0" probability="0.9882352941176471"/>
<ScoreDistribution value="1" recordCount="0.0" confidence="1.0" probability="0.011764705882352941"/>
<Node id="4" score="0">
    <Extension name="trainingProportion" value="0.9764705882352941"/>
    <SimplePredicate field="petalwidth" operator="lessThan" value="1.65"/>
    <ScoreDistribution value="0" recordCount="0.0" confidence="83.0" probability="1.0"/>
    <ScoreDistribution value="1" recordCount="0.0" confidence="0.0" probability="0.0"/>
</Node>
<Node id="5">
    <Extension name="trainingProportion" value="0.023529411764705882"/>
    <SimplePredicate field="petalwidth" operator="greaterOrEqual" value="1.65"/>
    <Node id="6" score="1">
        <Extension name="trainingProportion" value="0.5"/>
        <SimplePredicate field="sepallength" operator="lessThan" value="5.800000000000001"/>
        <ScoreDistribution value="0" recordCount="0.0" confidence="0.0" probability="0.0"/>
        <ScoreDistribution value="1" recordCount="0.0" confidence="1.0" probability="1.0"/>
    </Node>
    <Node id="7" score="0">
        <Extension name="trainingProportion" value="0.5"/>
        <SimplePredicate field="sepallength" operator="greaterOrEqual" value="5.800000000000001"/>
        <ScoreDistribution value="0" recordCount="0.0" confidence="1.0" probability="1.0"/>
        <ScoreDistribution value="1" recordCount="0.0" confidence="0.0" probability="0.0"/>
    </Node>
</Node>
                            </Node>
                            <Node id="8">
<Extension name="trainingProportion" value="0.0449438202247191"/>
<SimplePredicate field="petallength" operator="greaterOrEqual" value="5.05"/>
<Node id="9" score="0">
    <Extension name="trainingProportion" value="0.25"/>
    <SimplePredicate field="sepallength" operator="lessThan" value="6.05"/>
    <ScoreDistribution value="0" recordCount="0.0" confidence="1.0" probability="1.0"/>
    <ScoreDistribution value="1" recordCount="0.0" confidence="0.0" probability="0.0"/>
</Node>
<Node id="10" score="1">
    <Extension name="trainingProportion" value="0.75"/>
    <SimplePredicate field="sepallength" operator="greaterOrEqual" value="6.05"/>
    <ScoreDistribution value="0" recordCount="0.0" confidence="0.0" probability="0.0"/>
    <ScoreDistribution value="1" recordCount="0.0" confidence="3.0" probability="1.0"/>
</Node>
                            </Node>
                        </Node>
                        <Node id="11" score="1">
                            <Extension name="trainingProportion" value="0.4066666666666667"/>
                            <SimplePredicate field="petalwidth" operator="greaterOrEqual" value="1.75"/>
                            <ScoreDistribution value="0" recordCount="0.0" confidence="0.0" probability="0.0"/>
                            <ScoreDistribution value="1" recordCount="0.0" confidence="61.0" probability="1.0"/>
                        </Node>
                    </Node>
                </TreeModel>
            </Segment>
            <Segment id="2">
                <TreeModel modelName="weka:weka.classifiers.trees.RandomForest_Model" functionName="classification" algorithmName="weka:weka.classifiers.trees.RandomForest" splitCharacteristic="multiSplit">
                    <MiningSchema>
                        <MiningField name="sepallength" usageType="active"/>
                        <MiningField name="sepalwidth" usageType="active"/>
                        <MiningField name="petallength" usageType="active"/>
                        <MiningField name="petalwidth" usageType="active"/>
                        <MiningField name="class" usageType="predicted"/>
                    </MiningSchema>
                    <Node id="1">
                        <True/>
                        <Node id="2">
                            <Extension name="trainingProportion" value="0.6866666666666666"/>
                            <SimplePredicate field="petalwidth" operator="lessThan" value="1.75"/>
                            <ScoreDistribution value="0" recordCount="0.0" confidence="98.0" probability="0.9514563106796117"/>
                            <ScoreDistribution value="1" recordCount="0.0" confidence="5.0" probability="0.04854368932038835"/>
                            <Node id="3">
<Extension name="trainingProportion" value="0.9611650485436893"/>
<SimplePredicate field="petallength" operator="lessThan" value="5.05"/>
<ScoreDistribution value="0" recordCount="0.0" confidence="97.0" probability="0.9797979797979798"/>
<ScoreDistribution value="1" recordCount="0.0" confidence="2.0" probability="0.020202020202020204"/>
<Node id="4" score="0">
    <Extension name="trainingProportion" value="0.9494949494949495"/>
    <SimplePredicate field="petalwidth" operator="lessThan" value="1.65"/>
    <ScoreDistribution value="0" recordCount="0.0" confidence="94.0" probability="1.0"/>
    <ScoreDistribution value="1" recordCount="0.0" confidence="0.0" probability="0.0"/>
</Node>
<Node id="5">
    <Extension name="trainingProportion" value="0.050505050505050504"/>
    <SimplePredicate field="petalwidth" operator="greaterOrEqual" value="1.65"/>
    <Node id="6" score="1">
        <Extension name="trainingProportion" value="0.4"/>
        <SimplePredicate field="sepallength" operator="lessThan" value="5.800000000000001"/>
        <ScoreDistribution value="0" recordCount="0.0" confidence="0.0" probability="0.0"/>
        <ScoreDistribution value="1" recordCount="0.0" confidence="2.0" probability="1.0"/>
    </Node>
    <Node id="7" score="0">
        <Extension name="trainingProportion" value="0.6"/>
        <SimplePredicate field="sepallength" operator="greaterOrEqual" value="5.800000000000001"/>
        <ScoreDistribution value="0" recordCount="0.0" confidence="3.0" probability="1.0"/>
        <ScoreDistribution value="1" recordCount="0.0" confidence="0.0" probability="0.0"/>
    </Node>
</Node>
                            </Node>
                            <Node id="8">
<Extension name="trainingProportion" value="0.038834951456310676"/>
<SimplePredicate field="petallength" operator="greaterOrEqual" value="5.05"/>
<Node id="9" score="0">
    <Extension name="trainingProportion" value="0.25"/>
    <SimplePredicate field="sepallength" operator="lessThan" value="6.05"/>
    <ScoreDistribution value="0" recordCount="0.0" confidence="1.0" probability="1.0"/>
    <ScoreDistribution value="1" recordCount="0.0" confidence="0.0" probability="0.0"/>
</Node>
<Node id="10" score="1">
    <Extension name="trainingProportion" value="0.75"/>
    <SimplePredicate field="sepallength" operator="greaterOrEqual" value="6.05"/>
    <ScoreDistribution value="0" recordCount="0.0" confidence="0.0" probability="0.0"/>
    <ScoreDistribution value="1" recordCount="0.0" confidence="3.0" probability="1.0"/>
</Node>
                            </Node>
                        </Node>
                        <Node id="11" score="1">
                            <Extension name="trainingProportion" value="0.31333333333333335"/>
                            <SimplePredicate field="petalwidth" operator="greaterOrEqual" value="1.75"/>
                            <ScoreDistribution value="0" recordCount="0.0" confidence="0.0" probability="0.0"/>
                            <ScoreDistribution value="1" recordCount="0.0" confidence="47.0" probability="1.0"/>
                        </Node>
                    </Node>
                </TreeModel>
            </Segment>
            <Segment id="3">
                <TreeModel modelName="weka:weka.classifiers.trees.RandomForest_Model" functionName="classification" algorithmName="weka:weka.classifiers.trees.RandomForest" splitCharacteristic="multiSplit">
                    <MiningSchema>
                        <MiningField name="sepallength" usageType="active"/>
                        <MiningField name="sepalwidth" usageType="active"/>
                        <MiningField name="petallength" usageType="active"/>
                        <MiningField name="petalwidth" usageType="active"/>
                        <MiningField name="class" usageType="predicted"/>
                    </MiningSchema>
                    <Node id="1">
                        <True/>
                        <Node id="2">
                            <Extension name="trainingProportion" value="0.7133333333333334"/>
                            <SimplePredicate field="petalwidth" operator="lessThan" value="1.75"/>
                            <ScoreDistribution value="0" recordCount="0.0" confidence="102.0" probability="0.9532710280373832"/>
                            <ScoreDistribution value="1" recordCount="0.0" confidence="5.0" probability="0.04672897196261682"/>
                            <Node id="3" score="0">
<Extension name="trainingProportion" value="0.897196261682243"/>
<SimplePredicate field="petallength" operator="lessThan" value="4.95"/>
<ScoreDistribution value="0" recordCount="0.0" confidence="96.0" probability="1.0"/>
<ScoreDistribution value="1" recordCount="0.0" confidence="0.0" probability="0.0"/>
                            </Node>
                            <Node id="4">
<Extension name="trainingProportion" value="0.102803738317757"/>
<SimplePredicate field="petallength" operator="greaterOrEqual" value="4.95"/>
<Node id="5">
    <Extension name="trainingProportion" value="0.5454545454545454"/>
    <SimplePredicate field="petalwidth" operator="lessThan" value="1.65"/>
    <ScoreDistribution value="0" recordCount="0.0" confidence="1.0" probability="0.16666666666666666"/>
    <ScoreDistribution value="1" recordCount="0.0" confidence="5.0" probability="0.8333333333333334"/>
    <Node id="6">
        <Extension name="trainingProportion" value="0.3333333333333333"/>
        <SimplePredicate field="sepallength" operator="lessThan" value="6.15"/>
        <Node id="7" score="1">
            <Extension name="trainingProportion" value="0.5"/>
            <SimplePredicate field="sepalwidth" operator="lessThan" value="2.45"/>
            <ScoreDistribution value="0" recordCount="0.0" confidence="0.0" probability="0.0"/>
            <ScoreDistribution value="1" recordCount="0.0" confidence="1.0" probability="1.0"/>
        </Node>
        <Node id="8" score="0">
            <Extension name="trainingProportion" value="0.5"/>
            <SimplePredicate field="sepalwidth" operator="greaterOrEqual" value="2.45"/>
            <ScoreDistribution value="0" recordCount="0.0" confidence="1.0" probability="1.0"/>
            <ScoreDistribution value="1" recordCount="0.0" confidence="0.0" probability="0.0"/>
        </Node>
    </Node>
    <Node id="9" score="1">
        <Extension name="trainingProportion" value="0.6666666666666666"/>
        <SimplePredicate field="sepallength" operator="greaterOrEqual" value="6.15"/>
        <ScoreDistribution value="0" recordCount="0.0" confidence="0.0" probability="0.0"/>
        <ScoreDistribution value="1" recordCount="0.0" confidence="4.0" probability="1.0"/>
    </Node>
</Node>
<Node id="10" score="0">
    <Extension name="trainingProportion" value="0.45454545454545453"/>
    <SimplePredicate field="petalwidth" operator="greaterOrEqual" value="1.65"/>
    <ScoreDistribution value="0" recordCount="0.0" confidence="5.0" probability="1.0"/>
    <ScoreDistribution value="1" recordCount="0.0" confidence="0.0" probability="0.0"/>
</Node>
                            </Node>
                        </Node>
                        <Node id="11" score="1">
                            <Extension name="trainingProportion" value="0.2866666666666667"/>
                            <SimplePredicate field="petalwidth" operator="greaterOrEqual" value="1.75"/>
                            <ScoreDistribution value="0" recordCount="0.0" confidence="0.0" probability="0.0"/>
                            <ScoreDistribution value="1" recordCount="0.0" confidence="43.0" probability="1.0"/>
                        </Node>
                    </Node>
                </TreeModel>
            </Segment>
            <Segment id="4">
                <TreeModel modelName="weka:weka.classifiers.trees.RandomForest_Model" functionName="classification" algorithmName="weka:weka.classifiers.trees.RandomForest" splitCharacteristic="multiSplit">
                    <MiningSchema>
                        <MiningField name="sepallength" usageType="active"/>
                        <MiningField name="sepalwidth" usageType="active"/>
                        <MiningField name="petallength" usageType="active"/>
                        <MiningField name="petalwidth" usageType="active"/>
                        <MiningField name="class" usageType="predicted"/>
                    </MiningSchema>
                    <Node id="1">
                        <True/>
                        <ScoreDistribution value="0" recordCount="0.0" confidence="93.0" probability="0.62"/>
                        <ScoreDistribution value="1" recordCount="0.0" confidence="57.0" probability="0.38"/>
                        <Node id="2">
                            <Extension name="trainingProportion" value="0.5933333333333334"/>
                            <SimplePredicate field="petallength" operator="lessThan" value="4.75"/>
                            <Node id="3" score="0">
<Extension name="trainingProportion" value="0.9887640449438202"/>
<SimplePredicate field="petalwidth" operator="lessThan" value="1.65"/>
<ScoreDistribution value="0" recordCount="0.0" confidence="88.0" probability="1.0"/>
<ScoreDistribution value="1" recordCount="0.0" confidence="0.0" probability="0.0"/>
                            </Node>
                            <Node id="4" score="1">
<Extension name="trainingProportion" value="0.011235955056179775"/>
<SimplePredicate field="petalwidth" operator="greaterOrEqual" value="1.65"/>
<ScoreDistribution value="0" recordCount="0.0" confidence="0.0" probability="0.0"/>
<ScoreDistribution value="1" recordCount="0.0" confidence="1.0" probability="1.0"/>
                            </Node>
                        </Node>
                        <Node id="5">
                            <Extension name="trainingProportion" value="0.4066666666666667"/>
                            <SimplePredicate field="petallength" operator="greaterOrEqual" value="4.75"/>
                            <Node id="6">
<Extension name="trainingProportion" value="0.18032786885245902"/>
<SimplePredicate field="petalwidth" operator="lessThan" value="1.75"/>
<ScoreDistribution value="0" recordCount="0.0" confidence="5.0" probability="0.45454545454545453"/>
<ScoreDistribution value="1" recordCount="0.0" confidence="6.0" probability="0.5454545454545454"/>
<Node id="7" score="0">
    <Extension name="trainingProportion" value="0.36363636363636365"/>
    <SimplePredicate field="petallength" operator="lessThan" value="5.05"/>
    <ScoreDistribution value="0" recordCount="0.0" confidence="4.0" probability="1.0"/>
    <ScoreDistribution value="1" recordCount="0.0" confidence="0.0" probability="0.0"/>
</Node>
<Node id="8">
    <Extension name="trainingProportion" value="0.6363636363636364"/>
    <SimplePredicate field="petallength" operator="greaterOrEqual" value="5.05"/>
    <Node id="9" score="0">
        <Extension name="trainingProportion" value="0.14285714285714285"/>
        <SimplePredicate field="sepallength" operator="lessThan" value="6.05"/>
        <ScoreDistribution value="0" recordCount="0.0" confidence="1.0" probability="1.0"/>
        <ScoreDistribution value="1" recordCount="0.0" confidence="0.0" probability="0.0"/>
    </Node>
    <Node id="10" score="1">
        <Extension name="trainingProportion" value="0.8571428571428571"/>
        <SimplePredicate field="sepallength" operator="greaterOrEqual" value="6.05"/>
        <ScoreDistribution value="0" recordCount="0.0" confidence="0.0" probability="0.0"/>
        <ScoreDistribution value="1" recordCount="0.0" confidence="6.0" probability="1.0"/>
    </Node>
</Node>
                            </Node>
                            <Node id="11" score="1">
<Extension name="trainingProportion" value="0.819672131147541"/>
<SimplePredicate field="petalwidth" operator="greaterOrEqual" value="1.75"/>
<ScoreDistribution value="0" recordCount="0.0" confidence="0.0" probability="0.0"/>
<ScoreDistribution value="1" recordCount="0.0" confidence="50.0" probability="1.0"/>
                            </Node>
                        </Node>
                    </Node>
                </TreeModel>
            </Segment>
            <Segment id="5">
                <TreeModel modelName="weka:weka.classifiers.trees.RandomForest_Model" functionName="classification" algorithmName="weka:weka.classifiers.trees.RandomForest" splitCharacteristic="multiSplit">
                    <MiningSchema>
                        <MiningField name="sepallength" usageType="active"/>
                        <MiningField name="sepalwidth" usageType="active"/>
                        <MiningField name="petallength" usageType="active"/>
                        <MiningField name="petalwidth" usageType="active"/>
                        <MiningField name="class" usageType="predicted"/>
                    </MiningSchema>
                    <Node id="1">
                        <True/>
                        <Node id="2">
                            <Extension name="trainingProportion" value="0.64"/>
                            <SimplePredicate field="petallength" operator="lessThan" value="4.85"/>
                            <ScoreDistribution value="0" recordCount="0.0" confidence="95.0" probability="0.9895833333333334"/>
                            <ScoreDistribution value="1" recordCount="0.0" confidence="1.0" probability="0.010416666666666666"/>
                            <Node id="3" score="0">
<Extension name="trainingProportion" value="0.9791666666666666"/>
<SimplePredicate field="petalwidth" operator="lessThan" value="1.65"/>
<ScoreDistribution value="0" recordCount="0.0" confidence="94.0" probability="1.0"/>
<ScoreDistribution value="1" recordCount="0.0" confidence="0.0" probability="0.0"/>
                            </Node>
                            <Node id="4">
<Extension name="trainingProportion" value="0.020833333333333332"/>
<SimplePredicate field="petalwidth" operator="greaterOrEqual" value="1.65"/>
<Node id="5" score="1">
    <Extension name="trainingProportion" value="0.5"/>
    <SimplePredicate field="sepallength" operator="lessThan" value="5.4"/>
    <ScoreDistribution value="0" recordCount="0.0" confidence="0.0" probability="0.0"/>
    <ScoreDistribution value="1" recordCount="0.0" confidence="1.0" probability="1.0"/>
</Node>
<Node id="6" score="0">
    <Extension name="trainingProportion" value="0.5"/>
    <SimplePredicate field="sepallength" operator="greaterOrEqual" value="5.4"/>
    <ScoreDistribution value="0" recordCount="0.0" confidence="1.0" probability="1.0"/>
    <ScoreDistribution value="1" recordCount="0.0" confidence="0.0" probability="0.0"/>
</Node>
                            </Node>
                        </Node>
                        <Node id="7">
                            <Extension name="trainingProportion" value="0.36"/>
                            <SimplePredicate field="petallength" operator="greaterOrEqual" value="4.85"/>
                            <ScoreDistribution value="0" recordCount="0.0" confidence="5.0" probability="0.09259259259259259"/>
                            <ScoreDistribution value="1" recordCount="0.0" confidence="49.0" probability="0.9074074074074074"/>
                            <Node id="8">
<Extension name="trainingProportion" value="0.18518518518518517"/>
<SimplePredicate field="petalwidth" operator="lessThan" value="1.75"/>
<Node id="9">
    <Extension name="trainingProportion" value="0.7"/>
    <SimplePredicate field="sepalwidth" operator="lessThan" value="3.05"/>
    <ScoreDistribution value="0" recordCount="0.0" confidence="2.0" probability="0.2857142857142857"/>
    <ScoreDistribution value="1" recordCount="0.0" confidence="5.0" probability="0.7142857142857143"/>
    <Node id="10" score="1">
        <Extension name="trainingProportion" value="0.5714285714285714"/>
        <SimplePredicate field="petalwidth" operator="lessThan" value="1.55"/>
        <ScoreDistribution value="0" recordCount="0.0" confidence="0.0" probability="0.0"/>
        <ScoreDistribution value="1" recordCount="0.0" confidence="4.0" probability="1.0"/>
    </Node>
    <Node id="11">
        <Extension name="trainingProportion" value="0.42857142857142855"/>
        <SimplePredicate field="petalwidth" operator="greaterOrEqual" value="1.55"/>
        <Node id="12" score="0">
            <Extension name="trainingProportion" value="0.6666666666666666"/>
            <SimplePredicate field="sepallength" operator="lessThan" value="6.95"/>
            <ScoreDistribution value="0" recordCount="0.0" confidence="2.0" probability="1.0"/>
            <ScoreDistribution value="1" recordCount="0.0" confidence="0.0" probability="0.0"/>
        </Node>
        <Node id="13" score="1">
            <Extension name="trainingProportion" value="0.3333333333333333"/>
            <SimplePredicate field="sepallength" operator="greaterOrEqual" value="6.95"/>
            <ScoreDistribution value="0" recordCount="0.0" confidence="0.0" probability="0.0"/>
            <ScoreDistribution value="1" recordCount="0.0" confidence="1.0" probability="1.0"/>
        </Node>
    </Node>
</Node>
<Node id="14" score="0">
    <Extension name="trainingProportion" value="0.3"/>
    <SimplePredicate field="sepalwidth" operator="greaterOrEqual" value="3.05"/>
    <ScoreDistribution value="0" recordCount="0.0" confidence="3.0" probability="1.0"/>
    <ScoreDistribution value="1" recordCount="0.0" confidence="0.0" probability="0.0"/>
</Node>
                            </Node>
                            <Node id="15" score="1">
<Extension name="trainingProportion" value="0.8148148148148148"/>
<SimplePredicate field="petalwidth" operator="greaterOrEqual" value="1.75"/>
<ScoreDistribution value="0" recordCount="0.0" confidence="0.0" probability="0.0"/>
<ScoreDistribution value="1" recordCount="0.0" confidence="44.0" probability="1.0"/>
                            </Node>
                        </Node>
                    </Node>
                </TreeModel>
            </Segment>
            <Segment id="6">
                <TreeModel modelName="weka:weka.classifiers.trees.RandomForest_Model" functionName="classification" algorithmName="weka:weka.classifiers.trees.RandomForest" splitCharacteristic="multiSplit">
                    <MiningSchema>
                        <MiningField name="sepallength" usageType="active"/>
                        <MiningField name="sepalwidth" usageType="active"/>
                        <MiningField name="petallength" usageType="active"/>
                        <MiningField name="petalwidth" usageType="active"/>
                        <MiningField name="class" usageType="predicted"/>
                    </MiningSchema>
                    <Node id="1">
                        <True/>
                        <ScoreDistribution value="0" recordCount="0.0" confidence="99.0" probability="0.66"/>
                        <ScoreDistribution value="1" recordCount="0.0" confidence="51.0" probability="0.34"/>
                        <Node id="2">
                            <Extension name="trainingProportion" value="0.6266666666666667"/>
                            <SimplePredicate field="petallength" operator="lessThan" value="4.75"/>
                            <Node id="3" score="0">
<Extension name="trainingProportion" value="0.9893617021276596"/>
<SimplePredicate field="petalwidth" operator="lessThan" value="1.65"/>
<ScoreDistribution value="0" recordCount="0.0" confidence="93.0" probability="1.0"/>
<ScoreDistribution value="1" recordCount="0.0" confidence="0.0" probability="0.0"/>
                            </Node>
                            <Node id="4" score="1">
<Extension name="trainingProportion" value="0.010638297872340425"/>
<SimplePredicate field="petalwidth" operator="greaterOrEqual" value="1.65"/>
<ScoreDistribution value="0" recordCount="0.0" confidence="0.0" probability="0.0"/>
<ScoreDistribution value="1" recordCount="0.0" confidence="1.0" probability="1.0"/>
                            </Node>
                        </Node>
                        <Node id="5">
                            <Extension name="trainingProportion" value="0.37333333333333335"/>
                            <SimplePredicate field="petallength" operator="greaterOrEqual" value="4.75"/>
                            <Node id="6">
<Extension name="trainingProportion" value="0.21428571428571427"/>
<SimplePredicate field="petalwidth" operator="lessThan" value="1.75"/>
<ScoreDistribution value="0" recordCount="0.0" confidence="6.0" probability="0.5"/>
<ScoreDistribution value="1" recordCount="0.0" confidence="6.0" probability="0.5"/>
<Node id="7">
    <Extension name="trainingProportion" value="0.5833333333333334"/>
    <SimplePredicate field="petalwidth" operator="lessThan" value="1.55"/>
    <Node id="8" score="1">
        <Extension name="trainingProportion" value="0.8571428571428571"/>
        <SimplePredicate field="sepallength" operator="lessThan" value="6.55"/>
        <ScoreDistribution value="0" recordCount="0.0" confidence="0.0" probability="0.0"/>
        <ScoreDistribution value="1" recordCount="0.0" confidence="6.0" probability="1.0"/>
    </Node>
    <Node id="9" score="0">
        <Extension name="trainingProportion" value="0.14285714285714285"/>
        <SimplePredicate field="sepallength" operator="greaterOrEqual" value="6.55"/>
        <ScoreDistribution value="0" recordCount="0.0" confidence="1.0" probability="1.0"/>
        <ScoreDistribution value="1" recordCount="0.0" confidence="0.0" probability="0.0"/>
    </Node>
</Node>
<Node id="10" score="0">
    <Extension name="trainingProportion" value="0.4166666666666667"/>
    <SimplePredicate field="petalwidth" operator="greaterOrEqual" value="1.55"/>
    <ScoreDistribution value="0" recordCount="0.0" confidence="5.0" probability="1.0"/>
    <ScoreDistribution value="1" recordCount="0.0" confidence="0.0" probability="0.0"/>
</Node>
                            </Node>
                            <Node id="11" score="1">
<Extension name="trainingProportion" value="0.7857142857142857"/>
<SimplePredicate field="petalwidth" operator="greaterOrEqual" value="1.75"/>
<ScoreDistribution value="0" recordCount="0.0" confidence="0.0" probability="0.0"/>
<ScoreDistribution value="1" recordCount="0.0" confidence="44.0" probability="1.0"/>
                            </Node>
                        </Node>
                    </Node>
                </TreeModel>
            </Segment>
            <Segment id="7">
                <TreeModel modelName="weka:weka.classifiers.trees.RandomForest_Model" functionName="classification" algorithmName="weka:weka.classifiers.trees.RandomForest" splitCharacteristic="multiSplit">
                    <MiningSchema>
                        <MiningField name="sepallength" usageType="active"/>
                        <MiningField name="sepalwidth" usageType="active"/>
                        <MiningField name="petallength" usageType="active"/>
                        <MiningField name="petalwidth" usageType="active"/>
                        <MiningField name="class" usageType="predicted"/>
                    </MiningSchema>
                    <Node id="1">
                        <True/>
                        <Node id="2">
                            <Extension name="trainingProportion" value="0.7533333333333333"/>
                            <SimplePredicate field="petallength" operator="lessThan" value="5.05"/>
                            <ScoreDistribution value="0" recordCount="0.0" confidence="112.0" probability="0.9911504424778761"/>
                            <ScoreDistribution value="1" recordCount="0.0" confidence="1.0" probability="0.008849557522123894"/>
                            <Node id="3" score="0">
<Extension name="trainingProportion" value="0.9823008849557522"/>
<SimplePredicate field="petalwidth" operator="lessThan" value="1.65"/>
<ScoreDistribution value="0" recordCount="0.0" confidence="111.0" probability="1.0"/>
<ScoreDistribution value="1" recordCount="0.0" confidence="0.0" probability="0.0"/>
                            </Node>
                            <Node id="4">
<Extension name="trainingProportion" value="0.017699115044247787"/>
<SimplePredicate field="petalwidth" operator="greaterOrEqual" value="1.65"/>
<Node id="5" score="1">
    <Extension name="trainingProportion" value="0.5"/>
    <SimplePredicate field="sepallength" operator="lessThan" value="5.800000000000001"/>
    <ScoreDistribution value="0" recordCount="0.0" confidence="0.0" probability="0.0"/>
    <ScoreDistribution value="1" recordCount="0.0" confidence="1.0" probability="1.0"/>
</Node>
<Node id="6" score="0">
    <Extension name="trainingProportion" value="0.5"/>
    <SimplePredicate field="sepallength" operator="greaterOrEqual" value="5.800000000000001"/>
    <ScoreDistribution value="0" recordCount="0.0" confidence="1.0" probability="1.0"/>
    <ScoreDistribution value="1" recordCount="0.0" confidence="0.0" probability="0.0"/>
</Node>
                            </Node>
                        </Node>
                        <Node id="7" score="1">
                            <Extension name="trainingProportion" value="0.24666666666666667"/>
                            <SimplePredicate field="petallength" operator="greaterOrEqual" value="5.05"/>
                            <ScoreDistribution value="0" recordCount="0.0" confidence="0.0" probability="0.0"/>
                            <ScoreDistribution value="1" recordCount="0.0" confidence="37.0" probability="1.0"/>
                        </Node>
                    </Node>
                </TreeModel>
            </Segment>
            <Segment id="8">
                <TreeModel modelName="weka:weka.classifiers.trees.RandomForest_Model" functionName="classification" algorithmName="weka:weka.classifiers.trees.RandomForest" splitCharacteristic="multiSplit">
                    <MiningSchema>
                        <MiningField name="sepallength" usageType="active"/>
                        <MiningField name="sepalwidth" usageType="active"/>
                        <MiningField name="petallength" usageType="active"/>
                        <MiningField name="petalwidth" usageType="active"/>
                        <MiningField name="class" usageType="predicted"/>
                    </MiningSchema>
                    <Node id="1">
                        <True/>
                        <ScoreDistribution value="0" recordCount="0.0" confidence="96.0" probability="0.64"/>
                        <ScoreDistribution value="1" recordCount="0.0" confidence="54.0" probability="0.36"/>
                        <Node id="2">
                            <Extension name="trainingProportion" value="0.62"/>
                            <SimplePredicate field="petallength" operator="lessThan" value="4.75"/>
                            <Node id="3" score="0">
<Extension name="trainingProportion" value="0.989247311827957"/>
<SimplePredicate field="petalwidth" operator="lessThan" value="1.65"/>
<ScoreDistribution value="0" recordCount="0.0" confidence="92.0" probability="1.0"/>
<ScoreDistribution value="1" recordCount="0.0" confidence="0.0" probability="0.0"/>
                            </Node>
                            <Node id="4" score="1">
<Extension name="trainingProportion" value="0.010752688172043012"/>
<SimplePredicate field="petalwidth" operator="greaterOrEqual" value="1.65"/>
<ScoreDistribution value="0" recordCount="0.0" confidence="0.0" probability="0.0"/>
<ScoreDistribution value="1" recordCount="0.0" confidence="1.0" probability="1.0"/>
                            </Node>
                        </Node>
                        <Node id="5">
                            <Extension name="trainingProportion" value="0.38"/>
                            <SimplePredicate field="petallength" operator="greaterOrEqual" value="4.75"/>
                            <ScoreDistribution value="0" recordCount="0.0" confidence="4.0" probability="0.07017543859649122"/>
                            <ScoreDistribution value="1" recordCount="0.0" confidence="53.0" probability="0.9298245614035088"/>
                            <Node id="6">
<Extension name="trainingProportion" value="0.21052631578947367"/>
<SimplePredicate field="petallength" operator="lessThan" value="5.05"/>
<Node id="7">
    <Extension name="trainingProportion" value="0.8333333333333334"/>
    <SimplePredicate field="sepalwidth" operator="lessThan" value="3.1"/>
    <ScoreDistribution value="0" recordCount="0.0" confidence="2.0" probability="0.2"/>
    <ScoreDistribution value="1" recordCount="0.0" confidence="8.0" probability="0.8"/>
    <Node id="8">
        <Extension name="trainingProportion" value="0.3"/>
        <SimplePredicate field="petalwidth" operator="lessThan" value="1.75"/>
        <Node id="9" score="1">
            <Extension name="trainingProportion" value="0.3333333333333333"/>
            <SimplePredicate field="sepallength" operator="lessThan" value="6.15"/>
            <ScoreDistribution value="0" recordCount="0.0" confidence="0.0" probability="0.0"/>
            <ScoreDistribution value="1" recordCount="0.0" confidence="1.0" probability="1.0"/>
        </Node>
        <Node id="10" score="0">
            <Extension name="trainingProportion" value="0.6666666666666666"/>
            <SimplePredicate field="sepallength" operator="greaterOrEqual" value="6.15"/>
            <ScoreDistribution value="0" recordCount="0.0" confidence="2.0" probability="1.0"/>
            <ScoreDistribution value="1" recordCount="0.0" confidence="0.0" probability="0.0"/>
        </Node>
    </Node>
    <Node id="11" score="1">
        <Extension name="trainingProportion" value="0.7"/>
        <SimplePredicate field="petalwidth" operator="greaterOrEqual" value="1.75"/>
        <ScoreDistribution value="0" recordCount="0.0" confidence="0.0" probability="0.0"/>
        <ScoreDistribution value="1" recordCount="0.0" confidence="7.0" probability="1.0"/>
    </Node>
</Node>
<Node id="12" score="0">
    <Extension name="trainingProportion" value="0.16666666666666666"/>
    <SimplePredicate field="sepalwidth" operator="greaterOrEqual" value="3.1"/>
    <ScoreDistribution value="0" recordCount="0.0" confidence="2.0" probability="1.0"/>
    <ScoreDistribution value="1" recordCount="0.0" confidence="0.0" probability="0.0"/>
</Node>
                            </Node>
                            <Node id="13" score="1">
<Extension name="trainingProportion" value="0.7894736842105263"/>
<SimplePredicate field="petallength" operator="greaterOrEqual" value="5.05"/>
<ScoreDistribution value="0" recordCount="0.0" confidence="0.0" probability="0.0"/>
<ScoreDistribution value="1" recordCount="0.0" confidence="45.0" probability="1.0"/>
                            </Node>
                        </Node>
                    </Node>
                </TreeModel>
            </Segment>
            <Segment id="9">
                <TreeModel modelName="weka:weka.classifiers.trees.RandomForest_Model" functionName="classification" algorithmName="weka:weka.classifiers.trees.RandomForest" splitCharacteristic="multiSplit">
                    <MiningSchema>
                        <MiningField name="sepallength" usageType="active"/>
                        <MiningField name="sepalwidth" usageType="active"/>
                        <MiningField name="petallength" usageType="active"/>
                        <MiningField name="petalwidth" usageType="active"/>
                        <MiningField name="class" usageType="predicted"/>
                    </MiningSchema>
                    <Node id="1">
                        <True/>
                        <ScoreDistribution value="0" recordCount="0.0" confidence="104.0" probability="0.6933333333333334"/>
                        <ScoreDistribution value="1" recordCount="0.0" confidence="46.0" probability="0.30666666666666664"/>
                        <Node id="2">
                            <Extension name="trainingProportion" value="0.7333333333333333"/>
                            <SimplePredicate field="petalwidth" operator="lessThan" value="1.65"/>
                            <Node id="3" score="0">
<Extension name="trainingProportion" value="0.9181818181818182"/>
<SimplePredicate field="petallength" operator="lessThan" value="4.95"/>
<ScoreDistribution value="0" recordCount="0.0" confidence="101.0" probability="1.0"/>
<ScoreDistribution value="1" recordCount="0.0" confidence="0.0" probability="0.0"/>
                            </Node>
                            <Node id="4">
<Extension name="trainingProportion" value="0.08181818181818182"/>
<SimplePredicate field="petallength" operator="greaterOrEqual" value="4.95"/>
<ScoreDistribution value="0" recordCount="0.0" confidence="2.0" probability="0.2222222222222222"/>
<ScoreDistribution value="1" recordCount="0.0" confidence="7.0" probability="0.7777777777777778"/>
<Node id="5" score="1">
    <Extension name="trainingProportion" value="0.5555555555555556"/>
    <SimplePredicate field="petalwidth" operator="lessThan" value="1.55"/>
    <ScoreDistribution value="0" recordCount="0.0" confidence="0.0" probability="0.0"/>
    <ScoreDistribution value="1" recordCount="0.0" confidence="5.0" probability="1.0"/>
</Node>
<Node id="6">
    <Extension name="trainingProportion" value="0.4444444444444444"/>
    <SimplePredicate field="petalwidth" operator="greaterOrEqual" value="1.55"/>
    <Node id="7" score="0">
        <Extension name="trainingProportion" value="0.5"/>
        <SimplePredicate field="sepallength" operator="lessThan" value="6.6"/>
        <ScoreDistribution value="0" recordCount="0.0" confidence="2.0" probability="1.0"/>
        <ScoreDistribution value="1" recordCount="0.0" confidence="0.0" probability="0.0"/>
    </Node>
    <Node id="8" score="1">
        <Extension name="trainingProportion" value="0.5"/>
        <SimplePredicate field="sepallength" operator="greaterOrEqual" value="6.6"/>
        <ScoreDistribution value="0" recordCount="0.0" confidence="0.0" probability="0.0"/>
        <ScoreDistribution value="1" recordCount="0.0" confidence="2.0" probability="1.0"/>
    </Node>
</Node>
                            </Node>
                        </Node>
                        <Node id="9">
                            <Extension name="trainingProportion" value="0.26666666666666666"/>
                            <SimplePredicate field="petalwidth" operator="greaterOrEqual" value="1.65"/>
                            <ScoreDistribution value="0" recordCount="0.0" confidence="1.0" probability="0.025"/>
                            <ScoreDistribution value="1" recordCount="0.0" confidence="39.0" probability="0.975"/>
                            <Node id="10">
<Extension name="trainingProportion" value="0.125"/>
<SimplePredicate field="petallength" operator="lessThan" value="4.85"/>
<Node id="11" score="1">
    <Extension name="trainingProportion" value="0.8"/>
    <SimplePredicate field="sepalwidth" operator="lessThan" value="3.1"/>
    <ScoreDistribution value="0" recordCount="0.0" confidence="0.0" probability="0.0"/>
    <ScoreDistribution value="1" recordCount="0.0" confidence="4.0" probability="1.0"/>
</Node>
<Node id="12" score="0">
    <Extension name="trainingProportion" value="0.2"/>
    <SimplePredicate field="sepalwidth" operator="greaterOrEqual" value="3.1"/>
    <ScoreDistribution value="0" recordCount="0.0" confidence="1.0" probability="1.0"/>
    <ScoreDistribution value="1" recordCount="0.0" confidence="0.0" probability="0.0"/>
</Node>
                            </Node>
                            <Node id="13" score="1">
<Extension name="trainingProportion" value="0.875"/>
<SimplePredicate field="petallength" operator="greaterOrEqual" value="4.85"/>
<ScoreDistribution value="0" recordCount="0.0" confidence="0.0" probability="0.0"/>
<ScoreDistribution value="1" recordCount="0.0" confidence="35.0" probability="1.0"/>
                            </Node>
                        </Node>
                    </Node>
                </TreeModel>
            </Segment>
            <Segment id="10">
                <TreeModel modelName="weka:weka.classifiers.trees.RandomForest_Model" functionName="classification" algorithmName="weka:weka.classifiers.trees.RandomForest" splitCharacteristic="multiSplit">
                    <MiningSchema>
                        <MiningField name="sepallength" usageType="active"/>
                        <MiningField name="sepalwidth" usageType="active"/>
                        <MiningField name="petallength" usageType="active"/>
                        <MiningField name="petalwidth" usageType="active"/>
                        <MiningField name="class" usageType="predicted"/>
                    </MiningSchema>
                    <Node id="1">
                        <True/>
                        <ScoreDistribution value="0" recordCount="0.0" confidence="98.0" probability="0.6533333333333333"/>
                        <ScoreDistribution value="1" recordCount="0.0" confidence="52.0" probability="0.3466666666666667"/>
                        <Node id="2">
                            <Extension name="trainingProportion" value="0.6533333333333333"/>
                            <SimplePredicate field="petallength" operator="lessThan" value="4.85"/>
                            <ScoreDistribution value="0" recordCount="0.0" confidence="96.0" probability="0.9795918367346939"/>
                            <ScoreDistribution value="1" recordCount="0.0" confidence="2.0" probability="0.02040816326530612"/>
                            <Node id="3" score="0">
<Extension name="trainingProportion" value="0.9591836734693877"/>
<SimplePredicate field="petalwidth" operator="lessThan" value="1.65"/>
<ScoreDistribution value="0" recordCount="0.0" confidence="94.0" probability="1.0"/>
<ScoreDistribution value="1" recordCount="0.0" confidence="0.0" probability="0.0"/>
                            </Node>
                            <Node id="4">
<Extension name="trainingProportion" value="0.04081632653061224"/>
<SimplePredicate field="petalwidth" operator="greaterOrEqual" value="1.65"/>
<Node id="5" score="1">
    <Extension name="trainingProportion" value="0.5"/>
    <SimplePredicate field="sepalwidth" operator="lessThan" value="3.0"/>
    <ScoreDistribution value="0" recordCount="0.0" confidence="0.0" probability="0.0"/>
    <ScoreDistribution value="1" recordCount="0.0" confidence="2.0" probability="1.0"/>
</Node>
<Node id="6" score="0">
    <Extension name="trainingProportion" value="0.5"/>
    <SimplePredicate field="sepalwidth" operator="greaterOrEqual" value="3.0"/>
    <ScoreDistribution value="0" recordCount="0.0" confidence="2.0" probability="1.0"/>
    <ScoreDistribution value="1" recordCount="0.0" confidence="0.0" probability="0.0"/>
</Node>
                            </Node>
                        </Node>
                        <Node id="7">
                            <Extension name="trainingProportion" value="0.3466666666666667"/>
                            <SimplePredicate field="petallength" operator="greaterOrEqual" value="4.85"/>
                            <Node id="8">
<Extension name="trainingProportion" value="0.15384615384615385"/>
<SimplePredicate field="petalwidth" operator="lessThan" value="1.75"/>
<ScoreDistribution value="0" recordCount="0.0" confidence="2.0" probability="0.25"/>
<ScoreDistribution value="1" recordCount="0.0" confidence="6.0" probability="0.75"/>
<Node id="9" score="1">
    <Extension name="trainingProportion" value="0.5"/>
    <SimplePredicate field="petalwidth" operator="lessThan" value="1.55"/>
    <ScoreDistribution value="0" recordCount="0.0" confidence="0.0" probability="0.0"/>
    <ScoreDistribution value="1" recordCount="0.0" confidence="4.0" probability="1.0"/>
</Node>
<Node id="10">
    <Extension name="trainingProportion" value="0.5"/>
    <SimplePredicate field="petalwidth" operator="greaterOrEqual" value="1.55"/>
    <Node id="11" score="0">
        <Extension name="trainingProportion" value="0.5"/>
        <SimplePredicate field="sepallength" operator="lessThan" value="6.95"/>
        <ScoreDistribution value="0" recordCount="0.0" confidence="2.0" probability="1.0"/>
        <ScoreDistribution value="1" recordCount="0.0" confidence="0.0" probability="0.0"/>
    </Node>
    <Node id="12" score="1">
        <Extension name="trainingProportion" value="0.5"/>
        <SimplePredicate field="sepallength" operator="greaterOrEqual" value="6.95"/>
        <ScoreDistribution value="0" recordCount="0.0" confidence="0.0" probability="0.0"/>
        <ScoreDistribution value="1" recordCount="0.0" confidence="2.0" probability="1.0"/>
    </Node>
</Node>
                            </Node>
                            <Node id="13" score="1">
<Extension name="trainingProportion" value="0.8461538461538461"/>
<SimplePredicate field="petalwidth" operator="greaterOrEqual" value="1.75"/>
<ScoreDistribution value="0" recordCount="0.0" confidence="0.0" probability="0.0"/>
<ScoreDistribution value="1" recordCount="0.0" confidence="44.0" probability="1.0"/>
                            </Node>
                        </Node>
                    </Node>
                </TreeModel>
            </Segment>
            <Segment id="11">
                <TreeModel modelName="weka:weka.classifiers.trees.RandomForest_Model" functionName="classification" algorithmName="weka:weka.classifiers.trees.RandomForest" splitCharacteristic="multiSplit">
                    <MiningSchema>
                        <MiningField name="sepallength" usageType="active"/>
                        <MiningField name="sepalwidth" usageType="active"/>
                        <MiningField name="petallength" usageType="active"/>
                        <MiningField name="petalwidth" usageType="active"/>
                        <MiningField name="class" usageType="predicted"/>
                    </MiningSchema>
                    <Node id="1">
                        <True/>
                        <ScoreDistribution value="0" recordCount="0.0" confidence="87.0" probability="0.58"/>
                        <ScoreDistribution value="1" recordCount="0.0" confidence="63.0" probability="0.42"/>
                        <Node id="2" score="0">
                            <Extension name="trainingProportion" value="0.5333333333333333"/>
                            <SimplePredicate field="petallength" operator="lessThan" value="4.75"/>
                            <ScoreDistribution value="0" recordCount="0.0" confidence="80.0" probability="1.0"/>
                            <ScoreDistribution value="1" recordCount="0.0" confidence="0.0" probability="0.0"/>
                        </Node>
                        <Node id="3">
                            <Extension name="trainingProportion" value="0.4666666666666667"/>
                            <SimplePredicate field="petallength" operator="greaterOrEqual" value="4.75"/>
                            <Node id="4">
<Extension name="trainingProportion" value="0.2714285714285714"/>
<SimplePredicate field="petallength" operator="lessThan" value="5.05"/>
<ScoreDistribution value="0" recordCount="0.0" confidence="7.0" probability="0.3684210526315789"/>
<ScoreDistribution value="1" recordCount="0.0" confidence="12.0" probability="0.631578947368421"/>
<Node id="5">
    <Extension name="trainingProportion" value="0.6842105263157895"/>
    <SimplePredicate field="sepallength" operator="lessThan" value="6.25"/>
    <Node id="6" score="1">
        <Extension name="trainingProportion" value="0.8461538461538461"/>
        <SimplePredicate field="sepalwidth" operator="lessThan" value="3.1"/>
        <ScoreDistribution value="0" recordCount="0.0" confidence="0.0" probability="0.0"/>
        <ScoreDistribution value="1" recordCount="0.0" confidence="11.0" probability="1.0"/>
    </Node>
    <Node id="7" score="0">
        <Extension name="trainingProportion" value="0.15384615384615385"/>
        <SimplePredicate field="sepalwidth" operator="greaterOrEqual" value="3.1"/>
        <ScoreDistribution value="0" recordCount="0.0" confidence="2.0" probability="1.0"/>
        <ScoreDistribution value="1" recordCount="0.0" confidence="0.0" probability="0.0"/>
    </Node>
</Node>
<Node id="8">
    <Extension name="trainingProportion" value="0.3157894736842105"/>
    <SimplePredicate field="sepallength" operator="greaterOrEqual" value="6.25"/>
    <Node id="9" score="0">
        <Extension name="trainingProportion" value="0.8333333333333334"/>
        <SimplePredicate field="petalwidth" operator="lessThan" value="1.7999999999999998"/>
        <ScoreDistribution value="0" recordCount="0.0" confidence="5.0" probability="1.0"/>
        <ScoreDistribution value="1" recordCount="0.0" confidence="0.0" probability="0.0"/>
    </Node>
    <Node id="10" score="1">
        <Extension name="trainingProportion" value="0.16666666666666666"/>
        <SimplePredicate field="petalwidth" operator="greaterOrEqual" value="1.7999999999999998"/>
        <ScoreDistribution value="0" recordCount="0.0" confidence="0.0" probability="0.0"/>
        <ScoreDistribution value="1" recordCount="0.0" confidence="1.0" probability="1.0"/>
    </Node>
</Node>
                            </Node>
                            <Node id="11" score="1">
<Extension name="trainingProportion" value="0.7285714285714285"/>
<SimplePredicate field="petallength" operator="greaterOrEqual" value="5.05"/>
<ScoreDistribution value="0" recordCount="0.0" confidence="0.0" probability="0.0"/>
<ScoreDistribution value="1" recordCount="0.0" confidence="51.0" probability="1.0"/>
                            </Node>
                        </Node>
                    </Node>
                </TreeModel>
            </Segment>
            <Segment id="12">
                <TreeModel modelName="weka:weka.classifiers.trees.RandomForest_Model" functionName="classification" algorithmName="weka:weka.classifiers.trees.RandomForest" splitCharacteristic="multiSplit">
                    <MiningSchema>
                        <MiningField name="sepallength" usageType="active"/>
                        <MiningField name="sepalwidth" usageType="active"/>
                        <MiningField name="petallength" usageType="active"/>
                        <MiningField name="petalwidth" usageType="active"/>
                        <MiningField name="class" usageType="predicted"/>
                    </MiningSchema>
                    <Node id="1">
                        <True/>
                        <ScoreDistribution value="0" recordCount="0.0" confidence="98.0" probability="0.6533333333333333"/>
                        <ScoreDistribution value="1" recordCount="0.0" confidence="52.0" probability="0.3466666666666667"/>
                        <Node id="2" score="0">
                            <Extension name="trainingProportion" value="0.62"/>
                            <SimplePredicate field="petallength" operator="lessThan" value="4.75"/>
                            <ScoreDistribution value="0" recordCount="0.0" confidence="93.0" probability="1.0"/>
                            <ScoreDistribution value="1" recordCount="0.0" confidence="0.0" probability="0.0"/>
                        </Node>
                        <Node id="3">
                            <Extension name="trainingProportion" value="0.38"/>
                            <SimplePredicate field="petallength" operator="greaterOrEqual" value="4.75"/>
                            <Node id="4">
<Extension name="trainingProportion" value="0.2631578947368421"/>
<SimplePredicate field="petallength" operator="lessThan" value="5.05"/>
<ScoreDistribution value="0" recordCount="0.0" confidence="5.0" probability="0.3333333333333333"/>
<ScoreDistribution value="1" recordCount="0.0" confidence="10.0" probability="0.6666666666666666"/>
<Node id="5">
    <Extension name="trainingProportion" value="0.7333333333333333"/>
    <SimplePredicate field="sepallength" operator="lessThan" value="6.5"/>
    <Node id="6" score="1">
        <Extension name="trainingProportion" value="0.9090909090909091"/>
        <SimplePredicate field="sepalwidth" operator="lessThan" value="3.1"/>
        <ScoreDistribution value="0" recordCount="0.0" confidence="0.0" probability="0.0"/>
        <ScoreDistribution value="1" recordCount="0.0" confidence="10.0" probability="1.0"/>
    </Node>
    <Node id="7" score="0">
        <Extension name="trainingProportion" value="0.09090909090909091"/>
        <SimplePredicate field="sepalwidth" operator="greaterOrEqual" value="3.1"/>
        <ScoreDistribution value="0" recordCount="0.0" confidence="1.0" probability="1.0"/>
        <ScoreDistribution value="1" recordCount="0.0" confidence="0.0" probability="0.0"/>
    </Node>
</Node>
<Node id="8" score="0">
    <Extension name="trainingProportion" value="0.26666666666666666"/>
    <SimplePredicate field="sepallength" operator="greaterOrEqual" value="6.5"/>
    <ScoreDistribution value="0" recordCount="0.0" confidence="4.0" probability="1.0"/>
    <ScoreDistribution value="1" recordCount="0.0" confidence="0.0" probability="0.0"/>
</Node>
                            </Node>
                            <Node id="9" score="1">
<Extension name="trainingProportion" value="0.7368421052631579"/>
<SimplePredicate field="petallength" operator="greaterOrEqual" value="5.05"/>
<ScoreDistribution value="0" recordCount="0.0" confidence="0.0" probability="0.0"/>
<ScoreDistribution value="1" recordCount="0.0" confidence="42.0" probability="1.0"/>
                            </Node>
                        </Node>
                    </Node>
                </TreeModel>
            </Segment>
            <Segment id="13">
                <TreeModel modelName="weka:weka.classifiers.trees.RandomForest_Model" functionName="classification" algorithmName="weka:weka.classifiers.trees.RandomForest" splitCharacteristic="multiSplit">
                    <MiningSchema>
                        <MiningField name="sepallength" usageType="active"/>
                        <MiningField name="sepalwidth" usageType="active"/>
                        <MiningField name="petallength" usageType="active"/>
                        <MiningField name="petalwidth" usageType="active"/>
                        <MiningField name="class" usageType="predicted"/>
                    </MiningSchema>
                    <Node id="1">
                        <True/>
                        <ScoreDistribution value="0" recordCount="0.0" confidence="95.0" probability="0.6333333333333333"/>
                        <ScoreDistribution value="1" recordCount="0.0" confidence="55.0" probability="0.36666666666666664"/>
                        <Node id="2">
                            <Extension name="trainingProportion" value="0.58"/>
                            <SimplePredicate field="petallength" operator="lessThan" value="4.75"/>
                            <Node id="3" score="0">
<Extension name="trainingProportion" value="0.9885057471264368"/>
<SimplePredicate field="petalwidth" operator="lessThan" value="1.65"/>
<ScoreDistribution value="0" recordCount="0.0" confidence="86.0" probability="1.0"/>
<ScoreDistribution value="1" recordCount="0.0" confidence="0.0" probability="0.0"/>
                            </Node>
                            <Node id="4" score="1">
<Extension name="trainingProportion" value="0.011494252873563218"/>
<SimplePredicate field="petalwidth" operator="greaterOrEqual" value="1.65"/>
<ScoreDistribution value="0" recordCount="0.0" confidence="0.0" probability="0.0"/>
<ScoreDistribution value="1" recordCount="0.0" confidence="1.0" probability="1.0"/>
                            </Node>
                        </Node>
                        <Node id="5">
                            <Extension name="trainingProportion" value="0.42"/>
                            <SimplePredicate field="petallength" operator="greaterOrEqual" value="4.75"/>
                            <Node id="6">
<Extension name="trainingProportion" value="0.4126984126984127"/>
<SimplePredicate field="petallength" operator="lessThan" value="5.15"/>
<ScoreDistribution value="0" recordCount="0.0" confidence="9.0" probability="0.34615384615384615"/>
<ScoreDistribution value="1" recordCount="0.0" confidence="17.0" probability="0.6538461538461539"/>
<Node id="7">
    <Extension name="trainingProportion" value="0.8461538461538461"/>
    <SimplePredicate field="sepallength" operator="lessThan" value="6.6"/>
    <Node id="8">
        <Extension name="trainingProportion" value="0.7272727272727273"/>
        <SimplePredicate field="petalwidth" operator="lessThan" value="1.85"/>
        <ScoreDistribution value="0" recordCount="0.0" confidence="5.0" probability="0.3125"/>
        <ScoreDistribution value="1" recordCount="0.0" confidence="11.0" probability="0.6875"/>
        <Node id="9">
            <Extension name="trainingProportion" value="0.875"/>
            <SimplePredicate field="sepalwidth" operator="lessThan" value="3.1"/>
            <Node id="10">
                <Extension name="trainingProportion" value="0.42857142857142855"/>
                <SimplePredicate field="sepalwidth" operator="lessThan" value="2.75"/>
                <ScoreDistribution value="0" recordCount="0.0" confidence="3.0" probability="0.5"/>
                <ScoreDistribution value="1" recordCount="0.0" confidence="3.0" probability="0.5"/>
                <Node id="11" score="1">
                    <Extension name="trainingProportion" value="0.3333333333333333"/>
                    <SimplePredicate field="sepalwidth" operator="lessThan" value="2.35"/>
                    <ScoreDistribution value="0" recordCount="0.0" confidence="0.0" probability="0.0"/>
                    <ScoreDistribution value="1" recordCount="0.0" confidence="2.0" probability="1.0"/>
                </Node>
                <Node id="12">
                    <Extension name="trainingProportion" value="0.6666666666666666"/>
                    <SimplePredicate field="sepalwidth" operator="greaterOrEqual" value="2.35"/>
                    <Node id="13" score="0">
                        <Extension name="trainingProportion" value="0.75"/>
                        <SimplePredicate field="petalwidth" operator="lessThan" value="1.7000000000000002"/>
                        <ScoreDistribution value="0" recordCount="0.0" confidence="3.0" probability="1.0"/>
                        <ScoreDistribution value="1" recordCount="0.0" confidence="0.0" probability="0.0"/>
                    </Node>
                    <Node id="14" score="1">
                        <Extension name="trainingProportion" value="0.25"/>
                        <SimplePredicate field="petalwidth" operator="greaterOrEqual" value="1.7000000000000002"/>
                        <ScoreDistribution value="0" recordCount="0.0" confidence="0.0" probability="0.0"/>
                        <ScoreDistribution value="1" recordCount="0.0" confidence="1.0" probability="1.0"/>
                    </Node>
                </Node>
            </Node>
            <Node id="15" score="1">
                <Extension name="trainingProportion" value="0.5714285714285714"/>
                <SimplePredicate field="sepalwidth" operator="greaterOrEqual" value="2.75"/>
                <ScoreDistribution value="0" recordCount="0.0" confidence="0.0" probability="0.0"/>
                <ScoreDistribution value="1" recordCount="0.0" confidence="8.0" probability="1.0"/>
            </Node>
        </Node>
        <Node id="16" score="0">
            <Extension name="trainingProportion" value="0.125"/>
            <SimplePredicate field="sepalwidth" operator="greaterOrEqual" value="3.1"/>
            <ScoreDistribution value="0" recordCount="0.0" confidence="2.0" probability="1.0"/>
            <ScoreDistribution value="1" recordCount="0.0" confidence="0.0" probability="0.0"/>
        </Node>
    </Node>
    <Node id="17" score="1">
        <Extension name="trainingProportion" value="0.2727272727272727"/>
        <SimplePredicate field="petalwidth" operator="greaterOrEqual" value="1.85"/>
        <ScoreDistribution value="0" recordCount="0.0" confidence="0.0" probability="0.0"/>
        <ScoreDistribution value="1" recordCount="0.0" confidence="6.0" probability="1.0"/>
    </Node>
</Node>
<Node id="18" score="0">
    <Extension name="trainingProportion" value="0.15384615384615385"/>
    <SimplePredicate field="sepallength" operator="greaterOrEqual" value="6.6"/>
    <ScoreDistribution value="0" recordCount="0.0" confidence="4.0" probability="1.0"/>
    <ScoreDistribution value="1" recordCount="0.0" confidence="0.0" probability="0.0"/>
</Node>
                            </Node>
                            <Node id="19" score="1">
<Extension name="trainingProportion" value="0.5873015873015873"/>
<SimplePredicate field="petallength" operator="greaterOrEqual" value="5.15"/>
<ScoreDistribution value="0" recordCount="0.0" confidence="0.0" probability="0.0"/>
<ScoreDistribution value="1" recordCount="0.0" confidence="37.0" probability="1.0"/>
                            </Node>
                        </Node>
                    </Node>
                </TreeModel>
            </Segment>
            <Segment id="14">
                <TreeModel modelName="weka:weka.classifiers.trees.RandomForest_Model" functionName="classification" algorithmName="weka:weka.classifiers.trees.RandomForest" splitCharacteristic="multiSplit">
                    <MiningSchema>
                        <MiningField name="sepallength" usageType="active"/>
                        <MiningField name="sepalwidth" usageType="active"/>
                        <MiningField name="petallength" usageType="active"/>
                        <MiningField name="petalwidth" usageType="active"/>
                        <MiningField name="class" usageType="predicted"/>
                    </MiningSchema>
                    <Node id="1">
                        <True/>
                        <Node id="2">
                            <Extension name="trainingProportion" value="0.62"/>
                            <SimplePredicate field="petalwidth" operator="lessThan" value="1.75"/>
                            <ScoreDistribution value="0" recordCount="0.0" confidence="89.0" probability="0.956989247311828"/>
                            <ScoreDistribution value="1" recordCount="0.0" confidence="4.0" probability="0.043010752688172046"/>
                            <Node id="3">
<Extension name="trainingProportion" value="0.946236559139785"/>
<SimplePredicate field="petallength" operator="lessThan" value="5.05"/>
<ScoreDistribution value="0" recordCount="0.0" confidence="87.0" probability="0.9886363636363636"/>
<ScoreDistribution value="1" recordCount="0.0" confidence="1.0" probability="0.011363636363636364"/>
<Node id="4" score="0">
    <Extension name="trainingProportion" value="0.9772727272727273"/>
    <SimplePredicate field="petalwidth" operator="lessThan" value="1.65"/>
    <ScoreDistribution value="0" recordCount="0.0" confidence="86.0" probability="1.0"/>
    <ScoreDistribution value="1" recordCount="0.0" confidence="0.0" probability="0.0"/>
</Node>
<Node id="5">
    <Extension name="trainingProportion" value="0.022727272727272728"/>
    <SimplePredicate field="petalwidth" operator="greaterOrEqual" value="1.65"/>
    <Node id="6" score="1">
        <Extension name="trainingProportion" value="0.5"/>
        <SimplePredicate field="sepallength" operator="lessThan" value="5.800000000000001"/>
        <ScoreDistribution value="0" recordCount="0.0" confidence="0.0" probability="0.0"/>
        <ScoreDistribution value="1" recordCount="0.0" confidence="1.0" probability="1.0"/>
    </Node>
    <Node id="7" score="0">
        <Extension name="trainingProportion" value="0.5"/>
        <SimplePredicate field="sepallength" operator="greaterOrEqual" value="5.800000000000001"/>
        <ScoreDistribution value="0" recordCount="0.0" confidence="1.0" probability="1.0"/>
        <ScoreDistribution value="1" recordCount="0.0" confidence="0.0" probability="0.0"/>
    </Node>
</Node>
                            </Node>
                            <Node id="8">
<Extension name="trainingProportion" value="0.053763440860215055"/>
<SimplePredicate field="petallength" operator="greaterOrEqual" value="5.05"/>
<Node id="9" score="0">
    <Extension name="trainingProportion" value="0.4"/>
    <SimplePredicate field="sepallength" operator="lessThan" value="6.05"/>
    <ScoreDistribution value="0" recordCount="0.0" confidence="2.0" probability="1.0"/>
    <ScoreDistribution value="1" recordCount="0.0" confidence="0.0" probability="0.0"/>
</Node>
<Node id="10" score="1">
    <Extension name="trainingProportion" value="0.6"/>
    <SimplePredicate field="sepallength" operator="greaterOrEqual" value="6.05"/>
    <ScoreDistribution value="0" recordCount="0.0" confidence="0.0" probability="0.0"/>
    <ScoreDistribution value="1" recordCount="0.0" confidence="3.0" probability="1.0"/>
</Node>
                            </Node>
                        </Node>
                        <Node id="11" score="1">
                            <Extension name="trainingProportion" value="0.38"/>
                            <SimplePredicate field="petalwidth" operator="greaterOrEqual" value="1.75"/>
                            <ScoreDistribution value="0" recordCount="0.0" confidence="0.0" probability="0.0"/>
                            <ScoreDistribution value="1" recordCount="0.0" confidence="57.0" probability="1.0"/>
                        </Node>
                    </Node>
                </TreeModel>
            </Segment>
            <Segment id="15">
                <TreeModel modelName="weka:weka.classifiers.trees.RandomForest_Model" functionName="classification" algorithmName="weka:weka.classifiers.trees.RandomForest" splitCharacteristic="multiSplit">
                    <MiningSchema>
                        <MiningField name="sepallength" usageType="active"/>
                        <MiningField name="sepalwidth" usageType="active"/>
                        <MiningField name="petallength" usageType="active"/>
                        <MiningField name="petalwidth" usageType="active"/>
                        <MiningField name="class" usageType="predicted"/>
                    </MiningSchema>
                    <Node id="1">
                        <True/>
                        <Node id="2" score="0">
                            <Extension name="trainingProportion" value="0.6266666666666667"/>
                            <SimplePredicate field="petallength" operator="lessThan" value="4.75"/>
                            <ScoreDistribution value="0" recordCount="0.0" confidence="94.0" probability="1.0"/>
                            <ScoreDistribution value="1" recordCount="0.0" confidence="0.0" probability="0.0"/>
                        </Node>
                        <Node id="3">
                            <Extension name="trainingProportion" value="0.37333333333333335"/>
                            <SimplePredicate field="petallength" operator="greaterOrEqual" value="4.75"/>
                            <ScoreDistribution value="0" recordCount="0.0" confidence="7.0" probability="0.125"/>
                            <ScoreDistribution value="1" recordCount="0.0" confidence="49.0" probability="0.875"/>
                            <Node id="4">
<Extension name="trainingProportion" value="0.375"/>
<SimplePredicate field="petalwidth" operator="lessThan" value="1.85"/>
<Node id="5">
    <Extension name="trainingProportion" value="0.8095238095238095"/>
    <SimplePredicate field="sepalwidth" operator="lessThan" value="3.05"/>
    <ScoreDistribution value="0" recordCount="0.0" confidence="3.0" probability="0.17647058823529413"/>
    <ScoreDistribution value="1" recordCount="0.0" confidence="14.0" probability="0.8235294117647058"/>
    <Node id="6">
        <Extension name="trainingProportion" value="0.47058823529411764"/>
        <SimplePredicate field="petalwidth" operator="lessThan" value="1.7000000000000002"/>
        <Node id="7">
            <Extension name="trainingProportion" value="0.625"/>
            <SimplePredicate field="sepalwidth" operator="lessThan" value="2.75"/>
            <ScoreDistribution value="0" recordCount="0.0" confidence="3.0" probability="0.6"/>
            <ScoreDistribution value="1" recordCount="0.0" confidence="2.0" probability="0.4"/>
            <Node id="8">
                <Extension name="trainingProportion" value="0.6"/>
                <SimplePredicate field="sepalwidth" operator="lessThan" value="2.6500000000000004"/>
                <Node id="9" score="1">
                    <Extension name="trainingProportion" value="0.6666666666666666"/>
                    <SimplePredicate field="sepallength" operator="lessThan" value="6.199999999999999"/>
                    <ScoreDistribution value="0" recordCount="0.0" confidence="0.0" probability="0.0"/>
                    <ScoreDistribution value="1" recordCount="0.0" confidence="2.0" probability="1.0"/>
                </Node>
                <Node id="10" score="0">
                    <Extension name="trainingProportion" value="0.3333333333333333"/>
                    <SimplePredicate field="sepallength" operator="greaterOrEqual" value="6.199999999999999"/>
                    <ScoreDistribution value="0" recordCount="0.0" confidence="1.0" probability="1.0"/>
                    <ScoreDistribution value="1" recordCount="0.0" confidence="0.0" probability="0.0"/>
                </Node>
            </Node>
            <Node id="11" score="0">
                <Extension name="trainingProportion" value="0.4"/>
                <SimplePredicate field="sepalwidth" operator="greaterOrEqual" value="2.6500000000000004"/>
                <ScoreDistribution value="0" recordCount="0.0" confidence="2.0" probability="1.0"/>
                <ScoreDistribution value="1" recordCount="0.0" confidence="0.0" probability="0.0"/>
            </Node>
        </Node>
        <Node id="12" score="1">
            <Extension name="trainingProportion" value="0.375"/>
            <SimplePredicate field="sepalwidth" operator="greaterOrEqual" value="2.75"/>
            <ScoreDistribution value="0" recordCount="0.0" confidence="0.0" probability="0.0"/>
            <ScoreDistribution value="1" recordCount="0.0" confidence="3.0" probability="1.0"/>
        </Node>
    </Node>
    <Node id="13" score="1">
        <Extension name="trainingProportion" value="0.5294117647058824"/>
        <SimplePredicate field="petalwidth" operator="greaterOrEqual" value="1.7000000000000002"/>
        <ScoreDistribution value="0" recordCount="0.0" confidence="0.0" probability="0.0"/>
        <ScoreDistribution value="1" recordCount="0.0" confidence="9.0" probability="1.0"/>
    </Node>
</Node>
<Node id="14" score="0">
    <Extension name="trainingProportion" value="0.19047619047619047"/>
    <SimplePredicate field="sepalwidth" operator="greaterOrEqual" value="3.05"/>
    <ScoreDistribution value="0" recordCount="0.0" confidence="4.0" probability="1.0"/>
    <ScoreDistribution value="1" recordCount="0.0" confidence="0.0" probability="0.0"/>
</Node>
                            </Node>
                            <Node id="15" score="1">
<Extension name="trainingProportion" value="0.625"/>
<SimplePredicate field="petalwidth" operator="greaterOrEqual" value="1.85"/>
<ScoreDistribution value="0" recordCount="0.0" confidence="0.0" probability="0.0"/>
<ScoreDistribution value="1" recordCount="0.0" confidence="35.0" probability="1.0"/>
                            </Node>
                        </Node>
                    </Node>
                </TreeModel>
            </Segment>
            <Segment id="16">
                <TreeModel modelName="weka:weka.classifiers.trees.RandomForest_Model" functionName="classification" algorithmName="weka:weka.classifiers.trees.RandomForest" splitCharacteristic="multiSplit">
                    <MiningSchema>
                        <MiningField name="sepallength" usageType="active"/>
                        <MiningField name="sepalwidth" usageType="active"/>
                        <MiningField name="petallength" usageType="active"/>
                        <MiningField name="petalwidth" usageType="active"/>
                        <MiningField name="class" usageType="predicted"/>
                    </MiningSchema>
                    <Node id="1">
                        <True/>
                        <ScoreDistribution value="0" recordCount="0.0" confidence="113.0" probability="0.7533333333333333"/>
                        <ScoreDistribution value="1" recordCount="0.0" confidence="37.0" probability="0.24666666666666667"/>
                        <Node id="2">
                            <Extension name="trainingProportion" value="0.7466666666666667"/>
                            <SimplePredicate field="petalwidth" operator="lessThan" value="1.65"/>
                            <ScoreDistribution value="0" recordCount="0.0" confidence="110.0" probability="0.9821428571428571"/>
                            <ScoreDistribution value="1" recordCount="0.0" confidence="2.0" probability="0.017857142857142856"/>
                            <Node id="3" score="0">
<Extension name="trainingProportion" value="0.9732142857142857"/>
<SimplePredicate field="petallength" operator="lessThan" value="4.95"/>
<ScoreDistribution value="0" recordCount="0.0" confidence="109.0" probability="1.0"/>
<ScoreDistribution value="1" recordCount="0.0" confidence="0.0" probability="0.0"/>
                            </Node>
                            <Node id="4">
<Extension name="trainingProportion" value="0.026785714285714284"/>
<SimplePredicate field="petallength" operator="greaterOrEqual" value="4.95"/>
<Node id="5" score="1">
    <Extension name="trainingProportion" value="0.6666666666666666"/>
    <SimplePredicate field="petalwidth" operator="lessThan" value="1.55"/>
    <ScoreDistribution value="0" recordCount="0.0" confidence="0.0" probability="0.0"/>
    <ScoreDistribution value="1" recordCount="0.0" confidence="2.0" probability="1.0"/>
</Node>
<Node id="6" score="0">
    <Extension name="trainingProportion" value="0.3333333333333333"/>
    <SimplePredicate field="petalwidth" operator="greaterOrEqual" value="1.55"/>
    <ScoreDistribution value="0" recordCount="0.0" confidence="1.0" probability="1.0"/>
    <ScoreDistribution value="1" recordCount="0.0" confidence="0.0" probability="0.0"/>
</Node>
                            </Node>
                        </Node>
                        <Node id="7">
                            <Extension name="trainingProportion" value="0.25333333333333335"/>
                            <SimplePredicate field="petalwidth" operator="greaterOrEqual" value="1.65"/>
                            <Node id="8">
<Extension name="trainingProportion" value="0.21052631578947367"/>
<SimplePredicate field="petallength" operator="lessThan" value="5.05"/>
<ScoreDistribution value="0" recordCount="0.0" confidence="3.0" probability="0.375"/>
<ScoreDistribution value="1" recordCount="0.0" confidence="5.0" probability="0.625"/>
<Node id="9">
    <Extension name="trainingProportion" value="0.75"/>
    <SimplePredicate field="sepalwidth" operator="lessThan" value="3.1"/>
    <Node id="10" score="1">
        <Extension name="trainingProportion" value="0.8333333333333334"/>
        <SimplePredicate field="sepallength" operator="lessThan" value="6.45"/>
        <ScoreDistribution value="0" recordCount="0.0" confidence="0.0" probability="0.0"/>
        <ScoreDistribution value="1" recordCount="0.0" confidence="5.0" probability="1.0"/>
    </Node>
    <Node id="11" score="0">
        <Extension name="trainingProportion" value="0.16666666666666666"/>
        <SimplePredicate field="sepallength" operator="greaterOrEqual" value="6.45"/>
        <ScoreDistribution value="0" recordCount="0.0" confidence="1.0" probability="1.0"/>
        <ScoreDistribution value="1" recordCount="0.0" confidence="0.0" probability="0.0"/>
    </Node>
</Node>
<Node id="12" score="0">
    <Extension name="trainingProportion" value="0.25"/>
    <SimplePredicate field="sepalwidth" operator="greaterOrEqual" value="3.1"/>
    <ScoreDistribution value="0" recordCount="0.0" confidence="2.0" probability="1.0"/>
    <ScoreDistribution value="1" recordCount="0.0" confidence="0.0" probability="0.0"/>
</Node>
                            </Node>
                            <Node id="13" score="1">
<Extension name="trainingProportion" value="0.7894736842105263"/>
<SimplePredicate field="petallength" operator="greaterOrEqual" value="5.05"/>
<ScoreDistribution value="0" recordCount="0.0" confidence="0.0" probability="0.0"/>
<ScoreDistribution value="1" recordCount="0.0" confidence="30.0" probability="1.0"/>
                            </Node>
                        </Node>
                    </Node>
                </TreeModel>
            </Segment>
            <Segment id="17">
                <TreeModel modelName="weka:weka.classifiers.trees.RandomForest_Model" functionName="classification" algorithmName="weka:weka.classifiers.trees.RandomForest" splitCharacteristic="multiSplit">
                    <MiningSchema>
                        <MiningField name="sepallength" usageType="active"/>
                        <MiningField name="sepalwidth" usageType="active"/>
                        <MiningField name="petallength" usageType="active"/>
                        <MiningField name="petalwidth" usageType="active"/>
                        <MiningField name="class" usageType="predicted"/>
                    </MiningSchema>
                    <Node id="1">
                        <True/>
                        <Node id="2">
                            <Extension name="trainingProportion" value="0.78"/>
                            <SimplePredicate field="petalwidth" operator="lessThan" value="1.75"/>
                            <ScoreDistribution value="0" recordCount="0.0" confidence="112.0" probability="0.9572649572649573"/>
                            <ScoreDistribution value="1" recordCount="0.0" confidence="5.0" probability="0.042735042735042736"/>
                            <Node id="3">
<Extension name="trainingProportion" value="0.9401709401709402"/>
<SimplePredicate field="petallength" operator="lessThan" value="4.95"/>
<Node id="4" score="0">
    <Extension name="trainingProportion" value="0.990909090909091"/>
    <SimplePredicate field="petalwidth" operator="lessThan" value="1.65"/>
    <ScoreDistribution value="0" recordCount="0.0" confidence="109.0" probability="1.0"/>
    <ScoreDistribution value="1" recordCount="0.0" confidence="0.0" probability="0.0"/>
</Node>
<Node id="5" score="1">
    <Extension name="trainingProportion" value="0.00909090909090909"/>
    <SimplePredicate field="petalwidth" operator="greaterOrEqual" value="1.65"/>
    <ScoreDistribution value="0" recordCount="0.0" confidence="0.0" probability="0.0"/>
    <ScoreDistribution value="1" recordCount="0.0" confidence="1.0" probability="1.0"/>
</Node>
                            </Node>
                            <Node id="6">
<Extension name="trainingProportion" value="0.05982905982905983"/>
<SimplePredicate field="petallength" operator="greaterOrEqual" value="4.95"/>
<ScoreDistribution value="0" recordCount="0.0" confidence="3.0" probability="0.42857142857142855"/>
<ScoreDistribution value="1" recordCount="0.0" confidence="4.0" probability="0.5714285714285714"/>
<Node id="7" score="1">
    <Extension name="trainingProportion" value="0.42857142857142855"/>
    <SimplePredicate field="petalwidth" operator="lessThan" value="1.55"/>
    <ScoreDistribution value="0" recordCount="0.0" confidence="0.0" probability="0.0"/>
    <ScoreDistribution value="1" recordCount="0.0" confidence="3.0" probability="1.0"/>
</Node>
<Node id="8">
    <Extension name="trainingProportion" value="0.5714285714285714"/>
    <SimplePredicate field="petalwidth" operator="greaterOrEqual" value="1.55"/>
    <Node id="9" score="0">
        <Extension name="trainingProportion" value="0.75"/>
        <SimplePredicate field="sepallength" operator="lessThan" value="6.95"/>
        <ScoreDistribution value="0" recordCount="0.0" confidence="3.0" probability="1.0"/>
        <ScoreDistribution value="1" recordCount="0.0" confidence="0.0" probability="0.0"/>
    </Node>
    <Node id="10" score="1">
        <Extension name="trainingProportion" value="0.25"/>
        <SimplePredicate field="sepallength" operator="greaterOrEqual" value="6.95"/>
        <ScoreDistribution value="0" recordCount="0.0" confidence="0.0" probability="0.0"/>
        <ScoreDistribution value="1" recordCount="0.0" confidence="1.0" probability="1.0"/>
    </Node>
</Node>
                            </Node>
                        </Node>
                        <Node id="11" score="1">
                            <Extension name="trainingProportion" value="0.22"/>
                            <SimplePredicate field="petalwidth" operator="greaterOrEqual" value="1.75"/>
                            <ScoreDistribution value="0" recordCount="0.0" confidence="0.0" probability="0.0"/>
                            <ScoreDistribution value="1" recordCount="0.0" confidence="33.0" probability="1.0"/>
                        </Node>
                    </Node>
                </TreeModel>
            </Segment>
            <Segment id="18">
                <TreeModel modelName="weka:weka.classifiers.trees.RandomForest_Model" functionName="classification" algorithmName="weka:weka.classifiers.trees.RandomForest" splitCharacteristic="multiSplit">
                    <MiningSchema>
                        <MiningField name="sepallength" usageType="active"/>
                        <MiningField name="sepalwidth" usageType="active"/>
                        <MiningField name="petallength" usageType="active"/>
                        <MiningField name="petalwidth" usageType="active"/>
                        <MiningField name="class" usageType="predicted"/>
                    </MiningSchema>
                    <Node id="1">
                        <True/>
                        <Node id="2">
                            <Extension name="trainingProportion" value="0.58"/>
                            <SimplePredicate field="petalwidth" operator="lessThan" value="1.65"/>
                            <ScoreDistribution value="0" recordCount="0.0" confidence="85.0" probability="0.9770114942528736"/>
                            <ScoreDistribution value="1" recordCount="0.0" confidence="2.0" probability="0.022988505747126436"/>
                            <Node id="3" score="0">
<Extension name="trainingProportion" value="0.9655172413793104"/>
<SimplePredicate field="petallength" operator="lessThan" value="4.95"/>
<ScoreDistribution value="0" recordCount="0.0" confidence="84.0" probability="1.0"/>
<ScoreDistribution value="1" recordCount="0.0" confidence="0.0" probability="0.0"/>
                            </Node>
                            <Node id="4">
<Extension name="trainingProportion" value="0.034482758620689655"/>
<SimplePredicate field="petallength" operator="greaterOrEqual" value="4.95"/>
<Node id="5" score="1">
    <Extension name="trainingProportion" value="0.6666666666666666"/>
    <SimplePredicate field="petalwidth" operator="lessThan" value="1.55"/>
    <ScoreDistribution value="0" recordCount="0.0" confidence="0.0" probability="0.0"/>
    <ScoreDistribution value="1" recordCount="0.0" confidence="2.0" probability="1.0"/>
</Node>
<Node id="6" score="0">
    <Extension name="trainingProportion" value="0.3333333333333333"/>
    <SimplePredicate field="petalwidth" operator="greaterOrEqual" value="1.55"/>
    <ScoreDistribution value="0" recordCount="0.0" confidence="1.0" probability="1.0"/>
    <ScoreDistribution value="1" recordCount="0.0" confidence="0.0" probability="0.0"/>
</Node>
                            </Node>
                        </Node>
                        <Node id="7">
                            <Extension name="trainingProportion" value="0.42"/>
                            <SimplePredicate field="petalwidth" operator="greaterOrEqual" value="1.65"/>
                            <ScoreDistribution value="0" recordCount="0.0" confidence="6.0" probability="0.09523809523809523"/>
                            <ScoreDistribution value="1" recordCount="0.0" confidence="57.0" probability="0.9047619047619048"/>
                            <Node id="8">
<Extension name="trainingProportion" value="0.2698412698412698"/>
<SimplePredicate field="petallength" operator="lessThan" value="5.05"/>
<Node id="9" score="1">
    <Extension name="trainingProportion" value="0.6470588235294118"/>
    <SimplePredicate field="sepalwidth" operator="lessThan" value="2.9"/>
    <ScoreDistribution value="0" recordCount="0.0" confidence="0.0" probability="0.0"/>
    <ScoreDistribution value="1" recordCount="0.0" confidence="11.0" probability="1.0"/>
</Node>
<Node id="10" score="0">
    <Extension name="trainingProportion" value="0.35294117647058826"/>
    <SimplePredicate field="sepalwidth" operator="greaterOrEqual" value="2.9"/>
    <ScoreDistribution value="0" recordCount="0.0" confidence="6.0" probability="1.0"/>
    <ScoreDistribution value="1" recordCount="0.0" confidence="0.0" probability="0.0"/>
</Node>
                            </Node>
                            <Node id="11" score="1">
<Extension name="trainingProportion" value="0.7301587301587301"/>
<SimplePredicate field="petallength" operator="greaterOrEqual" value="5.05"/>
<ScoreDistribution value="0" recordCount="0.0" confidence="0.0" probability="0.0"/>
<ScoreDistribution value="1" recordCount="0.0" confidence="46.0" probability="1.0"/>
                            </Node>
                        </Node>
                    </Node>
                </TreeModel>
            </Segment>
            <Segment id="19">
                <TreeModel modelName="weka:weka.classifiers.trees.RandomForest_Model" functionName="classification" algorithmName="weka:weka.classifiers.trees.RandomForest" splitCharacteristic="multiSplit">
                    <MiningSchema>
                        <MiningField name="sepallength" usageType="active"/>
                        <MiningField name="sepalwidth" usageType="active"/>
                        <MiningField name="petallength" usageType="active"/>
                        <MiningField name="petalwidth" usageType="active"/>
                        <MiningField name="class" usageType="predicted"/>
                    </MiningSchema>
                    <Node id="1">
                        <True/>
                        <Node id="2">
                            <Extension name="trainingProportion" value="0.6733333333333333"/>
                            <SimplePredicate field="petallength" operator="lessThan" value="4.95"/>
                            <ScoreDistribution value="0" recordCount="0.0" confidence="99.0" probability="0.9801980198019802"/>
                            <ScoreDistribution value="1" recordCount="0.0" confidence="2.0" probability="0.019801980198019802"/>
                            <Node id="3" score="0">
<Extension name="trainingProportion" value="0.9504950495049505"/>
<SimplePredicate field="petalwidth" operator="lessThan" value="1.65"/>
<ScoreDistribution value="0" recordCount="0.0" confidence="96.0" probability="1.0"/>
<ScoreDistribution value="1" recordCount="0.0" confidence="0.0" probability="0.0"/>
                            </Node>
                            <Node id="4">
<Extension name="trainingProportion" value="0.04950495049504951"/>
<SimplePredicate field="petalwidth" operator="greaterOrEqual" value="1.65"/>
<Node id="5" score="1">
    <Extension name="trainingProportion" value="0.4"/>
    <SimplePredicate field="sepalwidth" operator="lessThan" value="3.0"/>
    <ScoreDistribution value="0" recordCount="0.0" confidence="0.0" probability="0.0"/>
    <ScoreDistribution value="1" recordCount="0.0" confidence="2.0" probability="1.0"/>
</Node>
<Node id="6" score="0">
    <Extension name="trainingProportion" value="0.6"/>
    <SimplePredicate field="sepalwidth" operator="greaterOrEqual" value="3.0"/>
    <ScoreDistribution value="0" recordCount="0.0" confidence="3.0" probability="1.0"/>
    <ScoreDistribution value="1" recordCount="0.0" confidence="0.0" probability="0.0"/>
</Node>
                            </Node>
                        </Node>
                        <Node id="7">
                            <Extension name="trainingProportion" value="0.32666666666666666"/>
                            <SimplePredicate field="petallength" operator="greaterOrEqual" value="4.95"/>
                            <ScoreDistribution value="0" recordCount="0.0" confidence="1.0" probability="0.02040816326530612"/>
                            <ScoreDistribution value="1" recordCount="0.0" confidence="48.0" probability="0.9795918367346939"/>
                            <Node id="8">
<Extension name="trainingProportion" value="0.061224489795918366"/>
<SimplePredicate field="petalwidth" operator="lessThan" value="1.75"/>
<Node id="9" score="1">
    <Extension name="trainingProportion" value="0.6666666666666666"/>
    <SimplePredicate field="sepallength" operator="lessThan" value="6.4"/>
    <ScoreDistribution value="0" recordCount="0.0" confidence="0.0" probability="0.0"/>
    <ScoreDistribution value="1" recordCount="0.0" confidence="2.0" probability="1.0"/>
</Node>
<Node id="10" score="0">
    <Extension name="trainingProportion" value="0.3333333333333333"/>
    <SimplePredicate field="sepallength" operator="greaterOrEqual" value="6.4"/>
    <ScoreDistribution value="0" recordCount="0.0" confidence="1.0" probability="1.0"/>
    <ScoreDistribution value="1" recordCount="0.0" confidence="0.0" probability="0.0"/>
</Node>
                            </Node>
                            <Node id="11" score="1">
<Extension name="trainingProportion" value="0.9387755102040817"/>
<SimplePredicate field="petalwidth" operator="greaterOrEqual" value="1.75"/>
<ScoreDistribution value="0" recordCount="0.0" confidence="0.0" probability="0.0"/>
<ScoreDistribution value="1" recordCount="0.0" confidence="46.0" probability="1.0"/>
                            </Node>
                        </Node>
                    </Node>
                </TreeModel>
            </Segment>
            <Segment id="20">
                <TreeModel modelName="weka:weka.classifiers.trees.RandomForest_Model" functionName="classification" algorithmName="weka:weka.classifiers.trees.RandomForest" splitCharacteristic="multiSplit">
                    <MiningSchema>
                        <MiningField name="sepallength" usageType="active"/>
                        <MiningField name="sepalwidth" usageType="active"/>
                        <MiningField name="petallength" usageType="active"/>
                        <MiningField name="petalwidth" usageType="active"/>
                        <MiningField name="class" usageType="predicted"/>
                    </MiningSchema>
                    <Node id="1">
                        <True/>
                        <ScoreDistribution value="0" recordCount="0.0" confidence="100.0" probability="0.6666666666666666"/>
                        <ScoreDistribution value="1" recordCount="0.0" confidence="50.0" probability="0.3333333333333333"/>
                        <Node id="2">
                            <Extension name="trainingProportion" value="0.6866666666666666"/>
                            <SimplePredicate field="petalwidth" operator="lessThan" value="1.75"/>
                            <Node id="3" score="0">
<Extension name="trainingProportion" value="0.8349514563106796"/>
<SimplePredicate field="petalwidth" operator="lessThan" value="1.45"/>
<ScoreDistribution value="0" recordCount="0.0" confidence="86.0" probability="1.0"/>
<ScoreDistribution value="1" recordCount="0.0" confidence="0.0" probability="0.0"/>
                            </Node>
                            <Node id="4">
<Extension name="trainingProportion" value="0.1650485436893204"/>
<SimplePredicate field="petalwidth" operator="greaterOrEqual" value="1.45"/>
<ScoreDistribution value="0" recordCount="0.0" confidence="14.0" probability="0.8235294117647058"/>
<ScoreDistribution value="1" recordCount="0.0" confidence="3.0" probability="0.17647058823529413"/>
<Node id="5" score="1">
    <Extension name="trainingProportion" value="0.058823529411764705"/>
    <SimplePredicate field="sepallength" operator="lessThan" value="5.15"/>
    <ScoreDistribution value="0" recordCount="0.0" confidence="0.0" probability="0.0"/>
    <ScoreDistribution value="1" recordCount="0.0" confidence="1.0" probability="1.0"/>
</Node>
<Node id="6">
    <Extension name="trainingProportion" value="0.9411764705882353"/>
    <SimplePredicate field="sepallength" operator="greaterOrEqual" value="5.15"/>
    <Node id="7" score="0">
        <Extension name="trainingProportion" value="0.75"/>
        <SimplePredicate field="petallength" operator="lessThan" value="4.85"/>
        <ScoreDistribution value="0" recordCount="0.0" confidence="12.0" probability="1.0"/>
        <ScoreDistribution value="1" recordCount="0.0" confidence="0.0" probability="0.0"/>
    </Node>
    <Node id="8">
        <Extension name="trainingProportion" value="0.25"/>
        <SimplePredicate field="petallength" operator="greaterOrEqual" value="4.85"/>
        <ScoreDistribution value="0" recordCount="0.0" confidence="2.0" probability="0.5"/>
        <ScoreDistribution value="1" recordCount="0.0" confidence="2.0" probability="0.5"/>
        <Node id="9">
            <Extension name="trainingProportion" value="0.75"/>
            <SimplePredicate field="sepallength" operator="lessThan" value="6.95"/>
            <Node id="10" score="1">
                <Extension name="trainingProportion" value="0.3333333333333333"/>
                <SimplePredicate field="sepalwidth" operator="lessThan" value="2.45"/>
                <ScoreDistribution value="0" recordCount="0.0" confidence="0.0" probability="0.0"/>
                <ScoreDistribution value="1" recordCount="0.0" confidence="1.0" probability="1.0"/>
            </Node>
            <Node id="11" score="0">
                <Extension name="trainingProportion" value="0.6666666666666666"/>
                <SimplePredicate field="sepalwidth" operator="greaterOrEqual" value="2.45"/>
                <ScoreDistribution value="0" recordCount="0.0" confidence="2.0" probability="1.0"/>
                <ScoreDistribution value="1" recordCount="0.0" confidence="0.0" probability="0.0"/>
            </Node>
        </Node>
        <Node id="12" score="1">
            <Extension name="trainingProportion" value="0.25"/>
            <SimplePredicate field="sepallength" operator="greaterOrEqual" value="6.95"/>
            <ScoreDistribution value="0" recordCount="0.0" confidence="0.0" probability="0.0"/>
            <ScoreDistribution value="1" recordCount="0.0" confidence="1.0" probability="1.0"/>
        </Node>
    </Node>
</Node>
                            </Node>
                        </Node>
                        <Node id="13" score="1">
                            <Extension name="trainingProportion" value="0.31333333333333335"/>
                            <SimplePredicate field="petalwidth" operator="greaterOrEqual" value="1.75"/>
                            <ScoreDistribution value="0" recordCount="0.0" confidence="0.0" probability="0.0"/>
                            <ScoreDistribution value="1" recordCount="0.0" confidence="47.0" probability="1.0"/>
                        </Node>
                    </Node>
                </TreeModel>
            </Segment>
            <Segment id="21">
                <TreeModel modelName="weka:weka.classifiers.trees.RandomForest_Model" functionName="classification" algorithmName="weka:weka.classifiers.trees.RandomForest" splitCharacteristic="multiSplit">
                    <MiningSchema>
                        <MiningField name="sepallength" usageType="active"/>
                        <MiningField name="sepalwidth" usageType="active"/>
                        <MiningField name="petallength" usageType="active"/>
                        <MiningField name="petalwidth" usageType="active"/>
                        <MiningField name="class" usageType="predicted"/>
                    </MiningSchema>
                    <Node id="1">
                        <True/>
                        <Node id="2">
                            <Extension name="trainingProportion" value="0.66"/>
